digraph Tree {
node [shape=box] ;
0 [label="Finished hwk <= 0.5\nentropy = 0.985\nsamples = 14\nvalue = [6, 8]"] ;
1 [label="Likes Coffee <= 0.5\nentropy = 0.985\nsamples = 7\nvalue = [4, 3]"] ;
0 -> 1 [labeldistance=2.5, labelangle=45, headlabel="True"] ;
2 [label="Senior <= 0.5\nentropy = 0.722\nsamples = 5\nvalue = [4, 1]"] ;
1 -> 2 ;
3 [label="entropy = 0.0\nsamples = 3\nvalue = [3, 0]"] ;
2 -> 3 ;
4 [label="entropy = 1.0\nsamples = 2\nvalue = [1, 1]"] ;
2 -> 4 ;
5 [label="entropy = 0.0\nsamples = 2\nvalue = [0, 2]"] ;
1 -> 5 ;
6 [label="early <= 0.5\nentropy = 0.863\nsamples = 7\nvalue = [2, 5]"] ;
0 -> 6 [labeldistance=2.5, labelangle=-45, headlabel="False"] ;
7 [label="Jedi <= 0.5\nentropy = 1.0\nsamples = 4\nvalue = [2, 2]"] ;
6 -> 7 ;
8 [label="entropy = 0.0\nsamples = 1\nvalue = [0, 1]"] ;
7 -> 8 ;
9 [label="entropy = 0.918\nsamples = 3\nvalue = [2, 1]"] ;
7 -> 9 ;
10 [label="entropy = 0.0\nsamples = 3\nvalue = [0, 3]"] ;
6 -> 10 ;
}